<?xml version="1.0"?>
<opencv_storage>
<cascade>
  <stageType>BOOST</stageType>
  <featureType>HAAR</featureType>
  <height>24</height>
  <width>24</width>
  <stageParams>
    <boostType>GAB</boostType>
    <minHitRate>9.9500000476837158e-001</minHitRate>
    <maxFalseAlarm>5.0000000000000000e-001</maxFalseAlarm>
    <weightTrimRate>9.4999998807907104e-001</weightTrimRate>
    <maxDepth>3</maxDepth>
    <maxWeakCount>100</maxWeakCount></stageParams>
  <featureParams>
    <maxCatCount>0</maxCatCount>
    <featSize>1</featSize>
    <mode>ALL</mode></featureParams>
  <stageNum>3</stageNum>
  <stages>
    <!-- stage 0 -->
    <_>
      <maxWeakCount>2</maxWeakCount>
      <stageThreshold>-1.7186566591262817e+000</stageThreshold>
      <weakClassifiers>
        <_>
          <internalNodes>
            1 2 28 7.3325133416801691e-004 3 4 33
            1.0640490800142288e-003 5 6 30 1.5054973773658276e-003 0 -1
            42 -8.9472578838467598e-004 -2 -3 8 5.0792400725185871e-003
            -4 -5 20 3.1512225978076458e-003 -6 -7 15
            -1.2941794469952583e-002</internalNodes>
          <leafValues>
            -7.4025976657867432e-001 -9.9318104982376099e-001
            -8.0487805604934692e-001 7.5000000000000000e-001
            -9.2366409301757813e-001 3.7500000000000000e-001 -1.
            8.0645161867141724e-001</leafValues></_>
        <_>
          <internalNodes>
            1 2 43 1.0332444217056036e-003 3 4 6
            -1.2056598206982017e-003 5 6 41 -1.1929742759093642e-003 0
            -1 9 1.7004299443215132e-003 -2 -3 34
            -1.1016074568033218e-003 -4 -5 5 -6.9844797253608704e-002 -6
            -7 35 1.4766490785405040e-003</internalNodes>
          <leafValues>
            -7.3298430442810059e-001 7.3429864645004272e-001
            -2.7584916353225708e-001 -9.7839695215225220e-001 -1.
            8.9913719892501831e-001 -7.8841102123260498e-001
            8.6311489343643188e-001</leafValues></_></weakClassifiers></_>
    <!-- stage 1 -->
    <_>
      <maxWeakCount>3</maxWeakCount>
      <stageThreshold>-1.7607141733169556e+000</stageThreshold>
      <weakClassifiers>
        <_>
          <internalNodes>
            1 2 46 -5.7663075625896454e-002 0 -1 0
            -1.7836511833593249e-003 3 4 32 1.7055305652320385e-003 -2
            -3 14 -3.3893346786499023e-002 -4 -5 29
            4.7192178666591644e-002</internalNodes>
          <leafValues>
            -1. 1. 6.0000002384185791e-001 -9.6761906147003174e-001
            -7.8448277711868286e-001 1.</leafValues></_>
        <_>
          <internalNodes>
            1 2 27 5.8357644593343139e-004 3 4 36
            6.2318856362253428e-004 5 6 12 -1.8941487360280007e-004 0 -1
            21 -7.0040166378021240e-002 -2 -3 24 3.7154788151383400e-003
            -4 -5 17 -1.7302930355072021e-002 -6 -7 22
            7.3740369407460093e-004</internalNodes>
          <leafValues>
            5.5430531501770020e-002 -9.6356314420700073e-001
            -6.5718472003936768e-001 6.5506219863891602e-001
            -7.7487897872924805e-001 6.6755527257919312e-001
            -9.3538022041320801e-001 4.4975033402442932e-001</leafValues></_>
        <_>
          <internalNodes>
            1 2 1 -7.2846503462642431e-004 3 4 48
            6.5545062534511089e-004 5 6 10 -1.6652829945087433e-002 0 -1
            38 -5.2741942927241325e-003 -2 -3 11
            -5.4115496575832367e-002 -4 -5 39 -3.4845187328755856e-003
            -6 -7 7 -1.3260275125503540e-002</internalNodes>
          <leafValues>
            3.5027563571929932e-001 -1. -1. 8.3410054445266724e-001
            7.3336285352706909e-001 -8.2220262289047241e-001
            5.2012568712234497e-001 -8.4852570295333862e-001</leafValues></_></weakClassifiers></_>
    <!-- stage 2 -->
    <_>
      <maxWeakCount>3</maxWeakCount>
      <stageThreshold>-2.3221926689147949e+000</stageThreshold>
      <weakClassifiers>
        <_>
          <internalNodes>
            1 0 4 3.4020009636878967e-001 2 3 16 5.3862132132053375e-002
            -1 -2 40 3.7261966615915298e-002 -3 -4 23
            -4.5344099635258317e-004</internalNodes>
          <leafValues>
            1. -9.5687824487686157e-001 6.0000002384185791e-001
            5.5555558204650879e-001 -8.4782606363296509e-001</leafValues></_>
        <_>
          <internalNodes>
            1 2 26 1.0944313835352659e-003 3 4 47
            -3.8104109466075897e-002 5 6 25 -2.1171243861317635e-002 0
            -1 18 2.1396474912762642e-003 -2 -3 19
            1.1236828286200762e-003 -4 -5 13 -2.1740554075222462e-005 -6
            -7 50 -1.0769058018922806e-002</internalNodes>
          <leafValues>
            -9.5252716541290283e-001 7.8913569450378418e-001
            -9.2448091506958008e-001 -4.7136923670768738e-001
            6.6186290979385376e-001 -7.7144396305084229e-001
            8.4342944622039795e-001 -8.5044860839843750e-001</leafValues></_>
        <_>
          <internalNodes>
            1 2 45 -1.1578202247619629e-003 3 4 37
            -1.2700360268354416e-002 5 6 44 1.2304869480431080e-002 0 -1
            31 -2.5323596782982349e-003 -2 -3 49
            -4.5705173397436738e-004 -4 -5 3 1.2340513058006763e-002 -6
            -7 2 -1.5415938105434179e-003</internalNodes>
          <leafValues>
            -1. 7.5181561708450317e-001 2.6715692877769470e-001
            -8.9394521713256836e-001 -9.0191209316253662e-001
            2.7306675910949707e-001 -6.7858439683914185e-001
            6.2734264135360718e-001</leafValues></_></weakClassifiers></_></stages>
  <features>
    <_>
      <rects>
        <_>
          0 3 2 8 -1.</_>
        <_>
          0 7 2 4 2.</_></rects>
      <tilted>0</tilted></_>
    <_>
      <rects>
        <_>
          0 7 3 1 -1.</_>
        <_>
          1 7 1 1 3.</_></rects>
      <tilted>0</tilted></_>
    <_>
      <rects>
        <_>
          0 12 6 8 -1.</_>
        <_>
          0 14 6 4 2.</_></rects>
      <tilted>0</tilted></_>
    <_>
      <rects>
        <_>
          0 20 4 3 -1.</_>
        <_>
          2 20 2 3 2.</_></rects>
      <tilted>0</tilted></_>
    <_>
      <rects>
        <_>
          1 1 9 12 -1.</_>
        <_>
          4 5 3 4 9.</_></rects>
      <tilted>0</tilted></_>
    <_>
      <rects>
        <_>
          1 5 23 10 -1.</_>
        <_>
          1 10 23 5 2.</_></rects>
      <tilted>0</tilted></_>
    <_>
      <rects>
        <_>
          2 6 4 1 -1.</_>
        <_>
          3 6 2 1 2.</_></rects>
      <tilted>0</tilted></_>
    <_>
      <rects>
        <_>
          2 6 2 13 -1.</_>
        <_>
          3 6 1 13 2.</_></rects>
      <tilted>0</tilted></_>
    <_>
      <rects>
        <_>
          3 1 2 8 -1.</_>
        <_>
          4 1 1 8 2.</_></rects>
      <tilted>0</tilted></_>
    <_>
      <rects>
        <_>
          3 18 2 4 -1.</_>
        <_>
          4 18 1 4 2.</_></rects>
      <tilted>0</tilted></_>
    <_>
      <rects>
        <_>
          4 6 6 4 -1.</_>
        <_>
          6 6 2 4 3.</_></rects>
      <tilted>0</tilted></_>
    <_>
      <rects>
        <_>
          4 7 14 12 -1.</_>
        <_>
          4 11 14 4 3.</_></rects>
      <tilted>0</tilted></_>
    <_>
      <rects>
        <_>
          4 17 3 2 -1.</_>
        <_>
          5 17 1 2 3.</_></rects>
      <tilted>0</tilted></_>
    <_>
      <rects>
        <_>
          4 18 12 2 -1.</_>
        <_>
          8 18 4 2 3.</_></rects>
      <tilted>0</tilted></_>
    <_>
      <rects>
        <_>
          5 4 4 15 -1.</_>
        <_>
          6 4 2 15 2.</_></rects>
      <tilted>0</tilted></_>
    <_>
      <rects>
        <_>
          5 4 17 2 -1.</_>
        <_>
          5 5 17 1 2.</_></rects>
      <tilted>0</tilted></_>
    <_>
      <rects>
        <_>
          6 1 12 4 -1.</_>
        <_>
          10 1 4 4 3.</_></rects>
      <tilted>0</tilted></_>
    <_>
      <rects>
        <_>
          6 3 17 12 -1.</_>
        <_>
          6 6 17 6 2.</_></rects>
      <tilted>0</tilted></_>
    <_>
      <rects>
        <_>
          6 21 4 2 -1.</_>
        <_>
          8 21 2 2 2.</_></rects>
      <tilted>0</tilted></_>
    <_>
      <rects>
        <_>
          6 22 3 2 -1.</_>
        <_>
          7 22 1 2 3.</_></rects>
      <tilted>0</tilted></_>
    <_>
      <rects>
        <_>
          7 2 4 2 -1.</_>
        <_>
          8 2 2 2 2.</_></rects>
      <tilted>0</tilted></_>
    <_>
      <rects>
        <_>
          7 5 9 11 -1.</_>
        <_>
          10 5 3 11 3.</_></rects>
      <tilted>0</tilted></_>
    <_>
      <rects>
        <_>
          7 20 2 1 -1.</_>
        <_>
          8 20 1 1 2.</_></rects>
      <tilted>0</tilted></_>
    <_>
      <rects>
        <_>
          7 21 3 1 -1.</_>
        <_>
          8 21 1 1 3.</_></rects>
      <tilted>0</tilted></_>
    <_>
      <rects>
        <_>
          10 4 2 6 -1.</_>
        <_>
          11 4 1 6 2.</_></rects>
      <tilted>0</tilted></_>
    <_>
      <rects>
        <_>
          10 21 14 3 -1.</_>
        <_>
          17 21 7 3 2.</_></rects>
      <tilted>0</tilted></_>
    <_>
      <rects>
        <_>
          10 22 4 1 -1.</_>
        <_>
          11 22 2 1 2.</_></rects>
      <tilted>0</tilted></_>
    <_>
      <rects>
        <_>
          11 14 3 1 -1.</_>
        <_>
          12 14 1 1 3.</_></rects>
      <tilted>0</tilted></_>
    <_>
      <rects>
        <_>
          11 21 3 1 -1.</_>
        <_>
          12 21 1 1 3.</_></rects>
      <tilted>0</tilted></_>
    <_>
      <rects>
        <_>
          12 0 9 5 -1.</_>
        <_>
          15 0 3 5 3.</_></rects>
      <tilted>0</tilted></_>
    <_>
      <rects>
        <_>
          12 3 2 4 -1.</_>
        <_>
          12 3 1 2 2.</_>
        <_>
          13 5 1 2 2.</_></rects>
      <tilted>0</tilted></_>
    <_>
      <rects>
        <_>
          12 5 1 8 -1.</_>
        <_>
          12 7 1 4 2.</_></rects>
      <tilted>0</tilted></_>
    <_>
      <rects>
        <_>
          12 18 4 1 -1.</_>
        <_>
          13 18 2 1 2.</_></rects>
      <tilted>0</tilted></_>
    <_>
      <rects>
        <_>
          13 1 3 1 -1.</_>
        <_>
          14 1 1 1 3.</_></rects>
      <tilted>0</tilted></_>
    <_>
      <rects>
        <_>
          13 4 2 2 -1.</_>
        <_>
          13 4 1 1 2.</_>
        <_>
          14 5 1 1 2.</_></rects>
      <tilted>0</tilted></_>
    <_>
      <rects>
        <_>
          13 10 3 1 -1.</_>
        <_>
          14 10 1 1 3.</_></rects>
      <tilted>0</tilted></_>
    <_>
      <rects>
        <_>
          13 20 3 1 -1.</_>
        <_>
          14 20 1 1 3.</_></rects>
      <tilted>0</tilted></_>
    <_>
      <rects>
        <_>
          15 12 4 7 -1.</_>
        <_>
          16 13 2 7 2.</_></rects>
      <tilted>1</tilted></_>
    <_>
      <rects>
        <_>
          15 16 4 8 -1.</_>
        <_>
          15 16 2 4 2.</_>
        <_>
          17 20 2 4 2.</_></rects>
      <tilted>0</tilted></_>
    <_>
      <rects>
        <_>
          16 15 6 6 -1.</_>
        <_>
          19 15 3 6 2.</_></rects>
      <tilted>0</tilted></_>
    <_>
      <rects>
        <_>
          17 9 4 3 -1.</_>
        <_>
          18 10 2 3 2.</_></rects>
      <tilted>1</tilted></_>
    <_>
      <rects>
        <_>
          17 18 3 3 -1.</_>
        <_>
          18 18 1 3 3.</_></rects>
      <tilted>0</tilted></_>
    <_>
      <rects>
        <_>
          18 0 2 2 -1.</_>
        <_>
          18 0 1 1 2.</_>
        <_>
          19 1 1 1 2.</_></rects>
      <tilted>0</tilted></_>
    <_>
      <rects>
        <_>
          18 2 2 2 -1.</_>
        <_>
          18 2 1 1 2.</_>
        <_>
          19 3 1 1 2.</_></rects>
      <tilted>0</tilted></_>
    <_>
      <rects>
        <_>
          18 3 4 11 -1.</_>
        <_>
          19 3 2 11 2.</_></rects>
      <tilted>0</tilted></_>
    <_>
      <rects>
        <_>
          18 4 4 2 -1.</_>
        <_>
          19 4 2 2 2.</_></rects>
      <tilted>0</tilted></_>
    <_>
      <rects>
        <_>
          19 5 4 18 -1.</_>
        <_>
          19 5 2 9 2.</_>
        <_>
          21 14 2 9 2.</_></rects>
      <tilted>0</tilted></_>
    <_>
      <rects>
        <_>
          20 5 4 18 -1.</_>
        <_>
          20 5 2 9 2.</_>
        <_>
          22 14 2 9 2.</_></rects>
      <tilted>0</tilted></_>
    <_>
      <rects>
        <_>
          20 21 2 1 -1.</_>
        <_>
          20 21 1 1 2.</_></rects>
      <tilted>1</tilted></_>
    <_>
      <rects>
        <_>
          21 22 2 2 -1.</_>
        <_>
          22 22 1 2 2.</_></rects>
      <tilted>0</tilted></_>
    <_>
      <rects>
        <_>
          23 14 1 4 -1.</_>
        <_>
          23 14 1 2 2.</_></rects>
      <tilted>1</tilted></_></features></cascade>
</opencv_storage>
